<?xml version="1.0"?>
<opencv_storage>
<stage1>
  <maxWeakCount>7</maxWeakCount>
  <stageThreshold>-1.3137054443359375e+00</stageThreshold>
  <weakClassifiers>
    <_>
      <internalNodes>
        0 -1 32885 1.9989380240440369e-01</internalNodes>
      <leafValues>
        -7.0294570922851563e-01 8.8923078775405884e-01</leafValues></_>
    <_>
      <internalNodes>
        0 -1 141950 -3.2830033451318741e-03</internalNodes>
      <leafValues>
        5.4538762569427490e-01 -7.0723384618759155e-01</leafValues></_>
    <_>
      <internalNodes>
        0 -1 104445 1.2418327969498932e-04</internalNodes>
      <leafValues>
        -8.4708184003829956e-01 3.4657493233680725e-01</leafValues></_>
    <_>
      <internalNodes>
        0 -1 86867 3.2689662475604564e-05</internalNodes>
      <leafValues>
        -9.1926842927932739e-01 2.2555387020111084e-01</leafValues></_>
    <_>
      <internalNodes>
        0 -1 109268 1.9249245815444738e-04</internalNodes>
      <leafValues>
        -8.0214339494705200e-01 2.4186751246452332e-01</leafValues></_>
    <_>
      <internalNodes>
        0 -1 125798 8.8677668827585876e-05</internalNodes>
      <leafValues>
        2.9371023178100586e-01 -8.7931072711944580e-01</leafValues></_>
    <_>
      <internalNodes>
        0 -1 125751 4.0076501318253577e-04</internalNodes>
      <leafValues>
        1.8242439627647400e-01 -9.6888691186904907e-01</leafValues></_></weakClassifiers></stage1>
</opencv_storage>
