<?xml version="1.0"?>
<opencv_storage>
<stage2>
  <maxWeakCount>10</maxWeakCount>
  <stageThreshold>-1.6137030124664307e+00</stageThreshold>
  <weakClassifiers>
    <_>
      <internalNodes>
        0 -1 8491 1.3641783595085144e-01</internalNodes>
      <leafValues>
        -6.6854286193847656e-01 7.3652696609497070e-01</leafValues></_>
    <_>
      <internalNodes>
        0 -1 86640 -1.7473960178904235e-04</internalNodes>
      <leafValues>
        3.0376279354095459e-01 -8.4079563617706299e-01</leafValues></_>
    <_>
      <internalNodes>
        0 -1 111267 -1.5008934133220464e-04</internalNodes>
      <leafValues>
        -9.4840937852859497e-01 2.3169441521167755e-01</leafValues></_>
    <_>
      <internalNodes>
        0 -1 118785 1.3199204113334417e-03</internalNodes>
      <leafValues>
        -9.0349453687667847e-01 2.7244982123374939e-01</leafValues></_>
    <_>
      <internalNodes>
        0 -1 111578 -6.6596228862181306e-05</internalNodes>
      <leafValues>
        2.0698525011539459e-01 -9.1364210844039917e-01</leafValues></_>
    <_>
      <internalNodes>
        0 -1 150098 3.1084241345524788e-03</internalNodes>
      <leafValues>
        -4.3561944365501404e-01 4.9209117889404297e-01</leafValues></_>
    <_>
      <internalNodes>
        0 -1 124300 -4.2462965939193964e-04</internalNodes>
      <leafValues>
        -8.9455538988113403e-01 2.4425499141216278e-01</leafValues></_>
    <_>
      <internalNodes>
        0 -1 125065 1.5832646749913692e-03</internalNodes>
      <leafValues>
        2.2582440078258514e-01 -8.6977201700210571e-01</leafValues></_>
    <_>
      <internalNodes>
        0 -1 85285 4.0854571852833033e-04</internalNodes>
      <leafValues>
        -7.6189488172531128e-01 2.2144247591495514e-01</leafValues></_>
    <_>
      <internalNodes>
        0 -1 125058 -4.1322031756862998e-04</internalNodes>
      <leafValues>
        -8.2326561212539673e-01 1.6017465293407440e-01</leafValues></_></weakClassifiers></stage2>
</opencv_storage>
