<?xml version="1.0"?>
<opencv_storage>
<cascade>
  <stageType>BOOST</stageType>
  <featureType>HAAR</featureType>
  <height>24</height>
  <width>24</width>
  <stageParams>
    <boostType>GAB</boostType>
    <minHitRate>9.9500000476837158e-01</minHitRate>
    <maxFalseAlarm>5.0000000000000000e-01</maxFalseAlarm>
    <weightTrimRate>9.4999999999999996e-01</weightTrimRate>
    <maxDepth>1</maxDepth>
    <maxWeakCount>100</maxWeakCount></stageParams>
  <featureParams>
    <maxCatCount>0</maxCatCount>
    <featSize>1</featSize>
    <mode>BASIC</mode></featureParams>
  <stageNum>7</stageNum>
  <stages>
    <!-- stage 0 -->
    <_>
      <maxWeakCount>3</maxWeakCount>
      <stageThreshold>-1.2770437002182007e+00</stageThreshold>
      <weakClassifiers>
        <_>
          <internalNodes>
            0 -1 16 1.0996110737323761e-02</internalNodes>
          <leafValues>
            -9.5665633678436279e-01 7.8378379344940186e-01</leafValues></_>
        <_>
          <internalNodes>
            0 -1 7 1.3324154540896416e-02</internalNodes>
          <leafValues>
            -9.2288124561309814e-01 7.3048764467239380e-01</leafValues></_>
        <_>
          <internalNodes>
            0 -1 9 -3.1179282814264297e-02</internalNodes>
          <leafValues>
            6.0249382257461548e-01 -9.9792718887329102e-01</leafValues></_></weakClassifiers></_>
    <!-- stage 1 -->
    <_>
      <maxWeakCount>3</maxWeakCount>
      <stageThreshold>-1.0731031894683838e+00</stageThreshold>
      <weakClassifiers>
        <_>
          <internalNodes>
            0 -1 20 1.2161107733845711e-02</internalNodes>
          <leafValues>
            -8.8270980119705200e-01 7.0065075159072876e-01</leafValues></_>
        <_>
          <internalNodes>
            0 -1 8 6.2935813330113888e-03</internalNodes>
          <leafValues>
            -7.7631950378417969e-01 7.1292483806610107e-01</leafValues></_>
        <_>
          <internalNodes>
            0 -1 6 -1.4072433114051819e-02</internalNodes>
          <leafValues>
            5.8592611551284790e-01 -8.7062501907348633e-01</leafValues></_></weakClassifiers></_>
    <!-- stage 2 -->
    <_>
      <maxWeakCount>3</maxWeakCount>
      <stageThreshold>-1.2713829278945923e+00</stageThreshold>
      <weakClassifiers>
        <_>
          <internalNodes>
            0 -1 2 -5.6482322514057159e-02</internalNodes>
          <leafValues>
            5.3369760513305664e-01 -9.3562710285186768e-01</leafValues></_>
        <_>
          <internalNodes>
            0 -1 18 -9.0476246550679207e-03</internalNodes>
          <leafValues>
            5.4873210191726685e-01 -8.4123301506042480e-01</leafValues></_>
        <_>
          <internalNodes>
            0 -1 0 -3.8165956735610962e-02</internalNodes>
          <leafValues>
            5.0547719001770020e-01 -8.7094444036483765e-01</leafValues></_></weakClassifiers></_>
    <!-- stage 3 -->
    <_>
      <maxWeakCount>3</maxWeakCount>
      <stageThreshold>-1.2064900398254395e+00</stageThreshold>
      <weakClassifiers>
        <_>
          <internalNodes>
            0 -1 11 -8.7306816130876541e-03</internalNodes>
          <leafValues>
            7.4936062097549438e-01 -7.9603397846221924e-01</leafValues></_>
        <_>
          <internalNodes>
            0 -1 17 -1.1584896594285965e-02</internalNodes>
          <leafValues>
            4.8652830719947815e-01 -9.1743403673171997e-01</leafValues></_>
        <_>
          <internalNodes>
            0 -1 1 -9.0353470295667648e-03</internalNodes>
          <leafValues>
            5.0697797536849976e-01 -8.1963348388671875e-01</leafValues></_></weakClassifiers></_>
    <!-- stage 4 -->
    <_>
      <maxWeakCount>4</maxWeakCount>
      <stageThreshold>-8.9662957191467285e-01</stageThreshold>
      <weakClassifiers>
        <_>
          <internalNodes>
            0 -1 3 -7.4200376868247986e-02</internalNodes>
          <leafValues>
            3.6333334445953369e-01 -9.0352940559387207e-01</leafValues></_>
        <_>
          <internalNodes>
            0 -1 4 -7.7087692916393280e-02</internalNodes>
          <leafValues>
            5.7674145698547363e-01 -7.1277815103530884e-01</leafValues></_>
        <_>
          <internalNodes>
            0 -1 15 2.9814788140356541e-03</internalNodes>
          <leafValues>
            -8.6715328693389893e-01 4.6328061819076538e-01</leafValues></_>
        <_>
          <internalNodes>
            0 -1 5 2.1880986168980598e-03</internalNodes>
          <leafValues>
            -9.7649276256561279e-01 3.1996855139732361e-01</leafValues></_></weakClassifiers></_>
    <!-- stage 5 -->
    <_>
      <maxWeakCount>3</maxWeakCount>
      <stageThreshold>-1.0958558320999146e+00</stageThreshold>
      <weakClassifiers>
        <_>
          <internalNodes>
            0 -1 12 -5.9778625145554543e-03</internalNodes>
          <leafValues>
            5.1724135875701904e-01 -8.0121701955795288e-01</leafValues></_>
        <_>
          <internalNodes>
            0 -1 21 7.9840617254376411e-03</internalNodes>
          <leafValues>
            -6.4912092685699463e-01 5.8325701951980591e-01</leafValues></_>
        <_>
          <internalNodes>
            0 -1 10 -1.4093569479882717e-02</internalNodes>
          <leafValues>
            3.5448205471038818e-01 -9.9712455272674561e-01</leafValues></_></weakClassifiers></_>
    <!-- stage 6 -->
    <_>
      <maxWeakCount>3</maxWeakCount>
      <stageThreshold>-1.2979183197021484e+00</stageThreshold>
      <weakClassifiers>
        <_>
          <internalNodes>
            0 -1 13 -3.4040026366710663e-03</internalNodes>
          <leafValues>
            4.2105263471603394e-01 -8.4313726425170898e-01</leafValues></_>
        <_>
          <internalNodes>
            0 -1 19 -1.1945388279855251e-02</internalNodes>
          <leafValues>
            4.4690656661987305e-01 -7.7949267625808716e-01</leafValues></_>
        <_>
          <internalNodes>
            0 -1 14 -2.7800839394330978e-02</internalNodes>
          <leafValues>
            -9.6532982587814331e-01 3.2471162080764771e-01</leafValues></_></weakClassifiers></_></stages>
  <features>
    <_>
      <rects>
        <_>
          5 5 15 6 -1.</_>
        <_>
          5 7 15 2 3.</_></rects>
      <tilted>0</tilted></_>
    <_>
      <rects>
        <_>
          6 6 4 15 -1.</_>
        <_>
          8 6 2 15 2.</_></rects>
      <tilted>0</tilted></_>
    <_>
      <rects>
        <_>
          7 13 9 9 -1.</_>
        <_>
          7 16 9 3 3.</_></rects>
      <tilted>0</tilted></_>
    <_>
      <rects>
        <_>
          7 13 11 9 -1.</_>
        <_>
          7 16 11 3 3.</_></rects>
      <tilted>0</tilted></_>
    <_>
      <rects>
        <_>
          8 2 10 9 -1.</_>
        <_>
          8 5 10 3 3.</_></rects>
      <tilted>0</tilted></_>
    <_>
      <rects>
        <_>
          8 7 12 7 -1.</_>
        <_>
          14 7 6 7 2.</_></rects>
      <tilted>0</tilted></_>
    <_>
      <rects>
        <_>
          9 4 7 6 -1.</_>
        <_>
          9 6 7 2 3.</_></rects>
      <tilted>0</tilted></_>
    <_>
      <rects>
        <_>
          9 7 6 4 -1.</_>
        <_>
          9 9 6 2 2.</_></rects>
      <tilted>0</tilted></_>
    <_>
      <rects>
        <_>
          9 9 3 6 -1.</_>
        <_>
          10 9 1 6 3.</_></rects>
      <tilted>0</tilted></_>
    <_>
      <rects>
        <_>
          9 11 9 8 -1.</_>
        <_>
          9 15 9 4 2.</_></rects>
      <tilted>0</tilted></_>
    <_>
      <rects>
        <_>
          10 9 3 12 -1.</_>
        <_>
          10 15 3 6 2.</_></rects>
      <tilted>0</tilted></_>
    <_>
      <rects>
        <_>
          10 10 3 4 -1.</_>
        <_>
          11 10 1 4 3.</_></rects>
      <tilted>0</tilted></_>
    <_>
      <rects>
        <_>
          10 10 2 6 -1.</_>
        <_>
          11 10 1 6 2.</_></rects>
      <tilted>0</tilted></_>
    <_>
      <rects>
        <_>
          10 11 3 2 -1.</_>
        <_>
          11 11 1 2 3.</_></rects>
      <tilted>0</tilted></_>
    <_>
      <rects>
        <_>
          11 5 4 16 -1.</_>
        <_>
          11 13 4 8 2.</_></rects>
      <tilted>0</tilted></_>
    <_>
      <rects>
        <_>
          13 14 4 6 -1.</_>
        <_>
          13 14 2 3 2.</_>
        <_>
          15 17 2 3 2.</_></rects>
      <tilted>0</tilted></_>
    <_>
      <rects>
        <_>
          13 14 8 4 -1.</_>
        <_>
          13 14 4 2 2.</_>
        <_>
          17 16 4 2 2.</_></rects>
      <tilted>0</tilted></_>
    <_>
      <rects>
        <_>
          15 7 6 8 -1.</_>
        <_>
          15 7 3 4 2.</_>
        <_>
          18 11 3 4 2.</_></rects>
      <tilted>0</tilted></_>
    <_>
      <rects>
        <_>
          16 13 6 2 -1.</_>
        <_>
          18 13 2 2 3.</_></rects>
      <tilted>0</tilted></_>
    <_>
      <rects>
        <_>
          16 13 6 3 -1.</_>
        <_>
          18 13 2 3 3.</_></rects>
      <tilted>0</tilted></_>
    <_>
      <rects>
        <_>
          16 13 4 6 -1.</_>
        <_>
          16 13 2 3 2.</_>
        <_>
          18 16 2 3 2.</_></rects>
      <tilted>0</tilted></_>
    <_>
      <rects>
        <_>
          18 14 4 3 -1.</_>
        <_>
          20 14 2 3 2.</_></rects>
      <tilted>0</tilted></_></features></cascade>
</opencv_storage>
