<?xml version="1.0"?>
<opencv_storage>
<stage1>
  <maxWeakCount>5</maxWeakCount>
  <stageThreshold>-1.4398170709609985e+00</stageThreshold>
  <weakClassifiers>
    <_>
      <internalNodes>
        0 -1 147449 1.2161107733845711e-02</internalNodes>
      <leafValues>
        -8.6760282516479492e-01 7.2564613819122314e-01</leafValues></_>
    <_>
      <internalNodes>
        0 -1 63438 -5.9921503067016602e-02</internalNodes>
      <leafValues>
        5.8436524868011475e-01 -8.8638567924499512e-01</leafValues></_>
    <_>
      <internalNodes>
        0 -1 79268 -2.1719813346862793e-02</internalNodes>
      <leafValues>
        5.2370041608810425e-01 -9.6725320816040039e-01</leafValues></_>
    <_>
      <internalNodes>
        0 -1 112177 -4.1336882859468460e-03</internalNodes>
      <leafValues>
        7.7984887361526489e-01 -6.7518168687820435e-01</leafValues></_>
    <_>
      <internalNodes>
        0 -1 136662 -1.0352656245231628e-02</internalNodes>
      <leafValues>
        4.6565270423889160e-01 -9.4479340314865112e-01</leafValues></_></weakClassifiers></stage1>
</opencv_storage>
