<?xml version="1.0"?>
<opencv_storage>
<stage5>
  <maxWeakCount>9</maxWeakCount>
  <stageThreshold>-1.7469502687454224e+00</stageThreshold>
  <weakClassifiers>
    <_>
      <internalNodes>
        0 -1 158925 1.1492220684885979e-02</internalNodes>
      <leafValues>
        -6.6495728492736816e-01 8.4242421388626099e-01</leafValues></_>
    <_>
      <internalNodes>
        0 -1 151145 -2.4423322174698114e-03</internalNodes>
      <leafValues>
        4.1842919588088989e-01 -8.0309939384460449e-01</leafValues></_>
    <_>
      <internalNodes>
        0 -1 64767 -3.2412808388471603e-02</internalNodes>
      <leafValues>
        4.3145304918289185e-01 -7.3339277505874634e-01</leafValues></_>
    <_>
      <internalNodes>
        0 -1 127329 -3.9938522968441248e-04</internalNodes>
      <leafValues>
        3.6197969317436218e-01 -8.4259974956512451e-01</leafValues></_>
    <_>
      <internalNodes>
        0 -1 103764 -1.6967882402241230e-03</internalNodes>
      <leafValues>
        -9.4174927473068237e-01 2.9643788933753967e-01</leafValues></_>
    <_>
      <internalNodes>
        0 -1 113808 -1.1208134237676859e-03</internalNodes>
      <leafValues>
        -9.6601498126983643e-01 2.5781992077827454e-01</leafValues></_>
    <_>
      <internalNodes>
        0 -1 120767 4.7029816778376698e-04</internalNodes>
      <leafValues>
        2.2373576462268829e-01 -9.1857302188873291e-01</leafValues></_>
    <_>
      <internalNodes>
        0 -1 127096 1.4174127500155009e-05</internalNodes>
      <leafValues>
        -9.2957025766372681e-01 2.5993007421493530e-01</leafValues></_>
    <_>
      <internalNodes>
        0 -1 113406 6.4315656200051308e-03</internalNodes>
      <leafValues>
        2.5917515158653259e-01 -9.3484556674957275e-01</leafValues></_></weakClassifiers></stage5>
</opencv_storage>
