<?xml version="1.0"?>
<opencv_storage>
<stage8>
  <maxWeakCount>9</maxWeakCount>
  <stageThreshold>-1.4420493841171265e+00</stageThreshold>
  <weakClassifiers>
    <_>
      <internalNodes>
        0 -1 92283 -1.0804786346852779e-02</internalNodes>
      <leafValues>
        6.3730567693710327e-01 -6.6965889930725098e-01</leafValues></_>
    <_>
      <internalNodes>
        0 -1 132586 1.6901141498237848e-04</internalNodes>
      <leafValues>
        -7.5745403766632080e-01 4.0193477272987366e-01</leafValues></_>
    <_>
      <internalNodes>
        0 -1 101236 1.5962524339556694e-03</internalNodes>
      <leafValues>
        2.5648668408393860e-01 -8.9308804273605347e-01</leafValues></_>
    <_>
      <internalNodes>
        0 -1 113754 1.4793116133660078e-04</internalNodes>
      <leafValues>
        2.5015446543693542e-01 -9.9697548151016235e-01</leafValues></_>
    <_>
      <internalNodes>
        0 -1 113756 -1.3557134661823511e-04</internalNodes>
      <leafValues>
        -9.0776669979095459e-01 2.4926340579986572e-01</leafValues></_>
    <_>
      <internalNodes>
        0 -1 97925 -1.2939129373989999e-04</internalNodes>
      <leafValues>
        2.3245872557163239e-01 -8.9211595058441162e-01</leafValues></_>
    <_>
      <internalNodes>
        0 -1 132600 -3.7496938602998853e-04</internalNodes>
      <leafValues>
        2.3681510984897614e-01 -8.3311003446578979e-01</leafValues></_>
    <_>
      <internalNodes>
        0 -1 56924 1.9596426282078028e-03</internalNodes>
      <leafValues>
        2.8575980663299561e-01 -7.8498727083206177e-01</leafValues></_>
    <_>
      <internalNodes>
        0 -1 152608 -5.6949511170387268e-02</internalNodes>
      <leafValues>
        8.3167415857315063e-01 -3.7629991769790649e-01</leafValues></_></weakClassifiers></stage8>
</opencv_storage>
