<?xml version="1.0"?>
<opencv_storage>
<stage9>
  <maxWeakCount>10</maxWeakCount>
  <stageThreshold>-1.7250941991806030e+00</stageThreshold>
  <weakClassifiers>
    <_>
      <internalNodes>
        0 -1 79661 -2.5194897316396236e-03</internalNodes>
      <leafValues>
        4.1758242249488831e-01 -7.6310271024703979e-01</leafValues></_>
    <_>
      <internalNodes>
        0 -1 84778 1.8223840743303299e-03</internalNodes>
      <leafValues>
        -8.4071391820907593e-01 2.7626323699951172e-01</leafValues></_>
    <_>
      <internalNodes>
        0 -1 97958 2.1036062389612198e-04</internalNodes>
      <leafValues>
        2.5960138440132141e-01 -8.7358772754669189e-01</leafValues></_>
    <_>
      <internalNodes>
        0 -1 133359 1.3078401025268249e-05</internalNodes>
      <leafValues>
        -8.6321783065795898e-01 2.7932333946228027e-01</leafValues></_>
    <_>
      <internalNodes>
        0 -1 95772 -3.1036608561407775e-05</internalNodes>
      <leafValues>
        3.2527798414230347e-01 -7.1929329633712769e-01</leafValues></_>
    <_>
      <internalNodes>
        0 -1 87403 -5.7631423696875572e-03</internalNodes>
      <leafValues>
        -9.4858634471893311e-01 2.7616387605667114e-01</leafValues></_>
    <_>
      <internalNodes>
        0 -1 127287 -4.1816104203462601e-04</internalNodes>
      <leafValues>
        -7.4387836456298828e-01 3.0495148897171021e-01</leafValues></_>
    <_>
      <internalNodes>
        0 -1 150626 1.2687016278505325e-03</internalNodes>
      <leafValues>
        -8.7428146600723267e-01 2.3779489099979401e-01</leafValues></_>
    <_>
      <internalNodes>
        0 -1 85894 4.7661466524004936e-03</internalNodes>
      <leafValues>
        1.8589165806770325e-01 -9.2186671495437622e-01</leafValues></_>
    <_>
      <internalNodes>
        0 -1 66841 -5.4535660892724991e-03</internalNodes>
      <leafValues>
        -9.2813766002655029e-01 2.1730078756809235e-01</leafValues></_></weakClassifiers></stage9>
</opencv_storage>
