<?xml version="1.0"?>
<opencv_storage>
<stage7>
  <maxWeakCount>9</maxWeakCount>
  <stageThreshold>-1.6073474884033203e+00</stageThreshold>
  <weakClassifiers>
    <_>
      <internalNodes>
        0 -1 44377 -8.6881518363952637e-03</internalNodes>
      <leafValues>
        6.7368423938751221e-01 -6.7500001192092896e-01</leafValues></_>
    <_>
      <internalNodes>
        0 -1 66797 -1.6091395809780806e-04</internalNodes>
      <leafValues>
        3.8016200065612793e-01 -8.5445970296859741e-01</leafValues></_>
    <_>
      <internalNodes>
        0 -1 130952 -2.0024226978421211e-03</internalNodes>
      <leafValues>
        3.2431295514106750e-01 -8.4616738557815552e-01</leafValues></_>
    <_>
      <internalNodes>
        0 -1 127462 -3.7455750862136483e-04</internalNodes>
      <leafValues>
        -9.6255332231521606e-01 2.4863457679748535e-01</leafValues></_>
    <_>
      <internalNodes>
        0 -1 132977 5.3577381186187267e-04</internalNodes>
      <leafValues>
        -8.2137084007263184e-01 2.8256332874298096e-01</leafValues></_>
    <_>
      <internalNodes>
        0 -1 124264 1.8291085143573582e-04</internalNodes>
      <leafValues>
        2.5185963511466980e-01 -9.1959130764007568e-01</leafValues></_>
    <_>
      <internalNodes>
        0 -1 115861 -1.7425892874598503e-02</internalNodes>
      <leafValues>
        6.3509631156921387e-01 -4.6816486120223999e-01</leafValues></_>
    <_>
      <internalNodes>
        0 -1 89322 1.5767149307066575e-05</internalNodes>
      <leafValues>
        -8.6618036031723022e-01 3.4349864721298218e-01</leafValues></_>
    <_>
      <internalNodes>
        0 -1 118250 2.4182346533052623e-04</internalNodes>
      <leafValues>
        1.9287236034870148e-01 -9.8658317327499390e-01</leafValues></_></weakClassifiers></stage7>
</opencv_storage>
