<?xml version="1.0"?>
<opencv_storage>
<stage1>
  <maxWeakCount>10</maxWeakCount>
  <stageThreshold>-1.5277729034423828e+00</stageThreshold>
  <weakClassifiers>
    <_>
      <internalNodes>
        0 -1 77896 2.3401051759719849e-02</internalNodes>
      <leafValues>
        -5.8774834871292114e-01 7.1917808055877686e-01</leafValues></_>
    <_>
      <internalNodes>
        0 -1 141396 -3.4713489003479481e-03</internalNodes>
      <leafValues>
        6.4441138505935669e-01 -4.4006493687629700e-01</leafValues></_>
    <_>
      <internalNodes>
        0 -1 142414 2.3371339193545282e-04</internalNodes>
      <leafValues>
        -8.4674918651580811e-01 3.2769116759300232e-01</leafValues></_>
    <_>
      <internalNodes>
        0 -1 138463 1.3048833352513611e-05</internalNodes>
      <leafValues>
        -7.6266324520111084e-01 2.9677146673202515e-01</leafValues></_>
    <_>
      <internalNodes>
        0 -1 119350 8.1081758253276348e-04</internalNodes>
      <leafValues>
        2.3039038479328156e-01 -7.9600089788436890e-01</leafValues></_>
    <_>
      <internalNodes>
        0 -1 125081 -8.1979739479720592e-04</internalNodes>
      <leafValues>
        -7.9388082027435303e-01 3.3881151676177979e-01</leafValues></_>
    <_>
      <internalNodes>
        0 -1 133265 5.2488212531898171e-05</internalNodes>
      <leafValues>
        -6.5607786178588867e-01 2.8983181715011597e-01</leafValues></_>
    <_>
      <internalNodes>
        0 -1 119882 -3.5915305488742888e-04</internalNodes>
      <leafValues>
        -9.6379047632217407e-01 2.2008326649665833e-01</leafValues></_>
    <_>
      <internalNodes>
        0 -1 85339 -9.4757881015539169e-03</internalNodes>
      <leafValues>
        7.6822775602340698e-01 -3.6612263321876526e-01</leafValues></_>
    <_>
      <internalNodes>
        0 -1 119882 2.2627061116509140e-04</internalNodes>
      <leafValues>
        3.6398342251777649e-01 -7.0472425222396851e-01</leafValues></_></weakClassifiers></stage1>
</opencv_storage>
