<?xml version="1.0"?>
<opencv_storage>
<stage6>
  <maxWeakCount>15</maxWeakCount>
  <stageThreshold>-1.4434531927108765e+00</stageThreshold>
  <weakClassifiers>
    <_>
      <internalNodes>
        0 -1 11699 1.3638141751289368e-01</internalNodes>
      <leafValues>
        -4.9847096204757690e-01 7.9166668653488159e-01</leafValues></_>
    <_>
      <internalNodes>
        0 -1 132363 6.6461984533816576e-04</internalNodes>
      <leafValues>
        -6.4783769845962524e-01 3.0302152037620544e-01</leafValues></_>
    <_>
      <internalNodes>
        0 -1 87743 1.8082028254866600e-03</internalNodes>
      <leafValues>
        2.9066002368927002e-01 -5.6963193416595459e-01</leafValues></_>
    <_>
      <internalNodes>
        0 -1 130948 -4.3186850962229073e-04</internalNodes>
      <leafValues>
        3.2749849557876587e-01 -4.9465304613113403e-01</leafValues></_>
    <_>
      <internalNodes>
        0 -1 45021 -2.5216480717062950e-03</internalNodes>
      <leafValues>
        3.8195738196372986e-01 -3.9355468750000000e-01</leafValues></_>
    <_>
      <internalNodes>
        0 -1 119425 5.8675394393503666e-04</internalNodes>
      <leafValues>
        2.1166151762008667e-01 -7.2269564867019653e-01</leafValues></_>
    <_>
      <internalNodes>
        0 -1 97101 3.9274420123547316e-04</internalNodes>
      <leafValues>
        -3.5956647992134094e-01 4.1781359910964966e-01</leafValues></_>
    <_>
      <internalNodes>
        0 -1 119424 6.8945570092182606e-05</internalNodes>
      <leafValues>
        -7.2006314992904663e-01 1.9125838577747345e-01</leafValues></_>
    <_>
      <internalNodes>
        0 -1 126072 2.3266572679858655e-04</internalNodes>
      <leafValues>
        2.1724386513233185e-01 -6.6056180000305176e-01</leafValues></_>
    <_>
      <internalNodes>
        0 -1 135867 -4.0680556558072567e-03</internalNodes>
      <leafValues>
        4.4339174032211304e-01 -3.8307175040245056e-01</leafValues></_>
    <_>
      <internalNodes>
        0 -1 103174 2.2272302885539830e-04</internalNodes>
      <leafValues>
        -4.1923364996910095e-01 3.0982527136802673e-01</leafValues></_>
    <_>
      <internalNodes>
        0 -1 88066 -1.3853413984179497e-02</internalNodes>
      <leafValues>
        5.3819721937179565e-01 -2.7468189597129822e-01</leafValues></_>
    <_>
      <internalNodes>
        0 -1 126875 2.8259539249120280e-05</internalNodes>
      <leafValues>
        -5.0651758909225464e-01 2.8727647662162781e-01</leafValues></_>
    <_>
      <internalNodes>
        0 -1 154196 -1.7142249271273613e-02</internalNodes>
      <leafValues>
        5.4150032997131348e-01 -2.4637675285339355e-01</leafValues></_>
    <_>
      <internalNodes>
        0 -1 61249 -1.8212512135505676e-02</internalNodes>
      <leafValues>
        3.4779423475265503e-01 -3.6087745428085327e-01</leafValues></_></weakClassifiers></stage6>
</opencv_storage>
