<?xml version="1.0"?>
<opencv_storage>
<stage4>
  <maxWeakCount>15</maxWeakCount>
  <stageThreshold>-1.8810420036315918e+00</stageThreshold>
  <weakClassifiers>
    <_>
      <internalNodes>
        0 -1 123849 1.9628915935754776e-02</internalNodes>
      <leafValues>
        -6.3999998569488525e-01 6.4800000190734863e-01</leafValues></_>
    <_>
      <internalNodes>
        0 -1 137092 5.5950577370822430e-04</internalNodes>
      <leafValues>
        -6.8911570310592651e-01 3.9299643039703369e-01</leafValues></_>
    <_>
      <internalNodes>
        0 -1 69597 7.9834694042801857e-04</internalNodes>
      <leafValues>
        -8.3797138929367065e-01 2.2513675689697266e-01</leafValues></_>
    <_>
      <internalNodes>
        0 -1 119190 -2.0668239812948741e-05</internalNodes>
      <leafValues>
        2.4019926786422729e-01 -7.7092194557189941e-01</leafValues></_>
    <_>
      <internalNodes>
        0 -1 105835 3.5010401159524918e-02</internalNodes>
      <leafValues>
        -3.9093670248985291e-01 5.3555494546890259e-01</leafValues></_>
    <_>
      <internalNodes>
        0 -1 119099 4.3405457399785519e-03</internalNodes>
      <leafValues>
        -7.7402663230895996e-01 2.5317183136940002e-01</leafValues></_>
    <_>
      <internalNodes>
        0 -1 97903 -4.5013523777015507e-04</internalNodes>
      <leafValues>
        -8.2593512535095215e-01 1.0209662467241287e-01</leafValues></_>
    <_>
      <internalNodes>
        0 -1 105368 1.4901471331540961e-05</internalNodes>
      <leafValues>
        -5.1891946792602539e-01 3.2124319672584534e-01</leafValues></_>
    <_>
      <internalNodes>
        0 -1 138688 -1.1689867824316025e-03</internalNodes>
      <leafValues>
        1.9885720312595367e-01 -7.5878822803497314e-01</leafValues></_>
    <_>
      <internalNodes>
        0 -1 118321 4.7612688504159451e-03</internalNodes>
      <leafValues>
        2.0433442294597626e-01 -7.2846359014511108e-01</leafValues></_>
    <_>
      <internalNodes>
        0 -1 124415 2.0590126514434814e-02</internalNodes>
      <leafValues>
        1.7884950339794159e-01 -9.4182115793228149e-01</leafValues></_>
    <_>
      <internalNodes>
        0 -1 94950 -1.0222970508038998e-02</internalNodes>
      <leafValues>
        -7.5585001707077026e-01 1.8641400337219238e-01</leafValues></_>
    <_>
      <internalNodes>
        0 -1 89443 1.7903111875057220e-03</internalNodes>
      <leafValues>
        1.6197164356708527e-01 -9.0587067604064941e-01</leafValues></_>
    <_>
      <internalNodes>
        0 -1 31395 1.0301784425973892e-01</internalNodes>
      <leafValues>
        -3.0497786402702332e-01 6.4196401834487915e-01</leafValues></_>
    <_>
      <internalNodes>
        0 -1 88684 -9.9492445588111877e-03</internalNodes>
      <leafValues>
        -9.7512459754943848e-01 1.9317416846752167e-01</leafValues></_></weakClassifiers></stage4>
</opencv_storage>
