<?xml version="1.0"?>
<opencv_storage>
<stage2>
  <maxWeakCount>16</maxWeakCount>
  <stageThreshold>-1.8695589303970337e+00</stageThreshold>
  <weakClassifiers>
    <_>
      <internalNodes>
        0 -1 5471 4.4765281677246094e-01</internalNodes>
      <leafValues>
        -5.9080666303634644e-01 8.5446983575820923e-01</leafValues></_>
    <_>
      <internalNodes>
        0 -1 143058 5.0004808144876733e-05</internalNodes>
      <leafValues>
        -7.5916808843612671e-01 3.7673264741897583e-01</leafValues></_>
    <_>
      <internalNodes>
        0 -1 77884 -1.1396885383874178e-04</internalNodes>
      <leafValues>
        3.1692609190940857e-01 -6.3367581367492676e-01</leafValues></_>
    <_>
      <internalNodes>
        0 -1 122988 -3.6400540266185999e-03</internalNodes>
      <leafValues>
        5.3296804428100586e-01 -3.5065373778343201e-01</leafValues></_>
    <_>
      <internalNodes>
        0 -1 117086 -1.2034692801535130e-02</internalNodes>
      <leafValues>
        -7.7030825614929199e-01 2.6344534754753113e-01</leafValues></_>
    <_>
      <internalNodes>
        0 -1 104866 -8.0560485366731882e-04</internalNodes>
      <leafValues>
        -8.1332850456237793e-01 1.4065800607204437e-01</leafValues></_>
    <_>
      <internalNodes>
        0 -1 112179 -4.4950193114345893e-05</internalNodes>
      <leafValues>
        2.6414522528648376e-01 -5.3012448549270630e-01</leafValues></_>
    <_>
      <internalNodes>
        0 -1 49838 9.7577989101409912e-02</internalNodes>
      <leafValues>
        -2.4743457138538361e-01 7.2972863912582397e-01</leafValues></_>
    <_>
      <internalNodes>
        0 -1 126732 2.8138895868323743e-04</internalNodes>
      <leafValues>
        3.3666786551475525e-01 -5.8832532167434692e-01</leafValues></_>
    <_>
      <internalNodes>
        0 -1 69320 -3.1258459202945232e-03</internalNodes>
      <leafValues>
        4.6528947353363037e-01 -3.1506729125976563e-01</leafValues></_>
    <_>
      <internalNodes>
        0 -1 126352 2.4363007105421275e-04</internalNodes>
      <leafValues>
        2.0108084380626678e-01 -8.8210797309875488e-01</leafValues></_>
    <_>
      <internalNodes>
        0 -1 94712 -4.8915977822616696e-04</internalNodes>
      <leafValues>
        4.3232175707817078e-01 -3.2575961947441101e-01</leafValues></_>
    <_>
      <internalNodes>
        0 -1 146055 3.9431076496839523e-02</internalNodes>
      <leafValues>
        -2.0294120907783508e-01 6.6724407672882080e-01</leafValues></_>
    <_>
      <internalNodes>
        0 -1 156913 -1.6170050948858261e-03</internalNodes>
      <leafValues>
        5.4387021064758301e-01 -2.6767343282699585e-01</leafValues></_>
    <_>
      <internalNodes>
        0 -1 126068 -6.1425147578120232e-04</internalNodes>
      <leafValues>
        -8.1662160158157349e-01 2.0085181295871735e-01</leafValues></_>
    <_>
      <internalNodes>
        0 -1 130240 -2.5661857798695564e-03</internalNodes>
      <leafValues>
        4.3068534135818481e-01 -3.6421874165534973e-01</leafValues></_></weakClassifiers></stage2>
</opencv_storage>
