<?xml version="1.0"?>
<opencv_storage>
<stage10>
  <maxWeakCount>30</maxWeakCount>
  <stageThreshold>-1.4419487714767456e+00</stageThreshold>
  <weakClassifiers>
    <_>
      <internalNodes>
        0 -1 68256 -4.1003748774528503e-02</internalNodes>
      <leafValues>
        4.6245059370994568e-01 -5.1686418056488037e-01</leafValues></_>
    <_>
      <internalNodes>
        0 -1 119958 -1.4142473228275776e-03</internalNodes>
      <leafValues>
        2.6658877730369568e-01 -3.7643343210220337e-01</leafValues></_>
    <_>
      <internalNodes>
        0 -1 126765 6.8863810156472027e-05</internalNodes>
      <leafValues>
        -4.4319635629653931e-01 1.8602408468723297e-01</leafValues></_>
    <_>
      <internalNodes>
        0 -1 64528 1.0368427634239197e-01</internalNodes>
      <leafValues>
        -1.3739937543869019e-01 6.6107785701751709e-01</leafValues></_>
    <_>
      <internalNodes>
        0 -1 71078 -7.5688824057579041e-02</internalNodes>
      <leafValues>
        5.1327496767044067e-01 -1.7512720823287964e-01</leafValues></_>
    <_>
      <internalNodes>
        0 -1 112615 -3.7277531810104847e-03</internalNodes>
      <leafValues>
        -7.6198881864547729e-01 1.6064980626106262e-01</leafValues></_>
    <_>
      <internalNodes>
        0 -1 46774 -2.0816963165998459e-02</internalNodes>
      <leafValues>
        -8.1768375635147095e-01 4.8526097089052200e-02</leafValues></_>
    <_>
      <internalNodes>
        0 -1 142157 3.8870712160132825e-04</internalNodes>
      <leafValues>
        -2.4912770092487335e-01 2.7384555339813232e-01</leafValues></_>
    <_>
      <internalNodes>
        0 -1 102898 8.6616054177284241e-03</internalNodes>
      <leafValues>
        1.6038393974304199e-01 -4.8315951228141785e-01</leafValues></_>
    <_>
      <internalNodes>
        0 -1 95824 -2.4634678848087788e-03</internalNodes>
      <leafValues>
        -5.3824484348297119e-01 1.4179858565330505e-01</leafValues></_>
    <_>
      <internalNodes>
        0 -1 105670 -1.9503543153405190e-03</internalNodes>
      <leafValues>
        5.5394095182418823e-01 -1.2751784920692444e-01</leafValues></_>
    <_>
      <internalNodes>
        0 -1 96431 -3.8785481592640281e-04</internalNodes>
      <leafValues>
        3.5193151235580444e-01 -2.1427933871746063e-01</leafValues></_>
    <_>
      <internalNodes>
        0 -1 126389 2.1381606347858906e-04</internalNodes>
      <leafValues>
        1.2149173021316528e-01 -5.9437894821166992e-01</leafValues></_>
    <_>
      <internalNodes>
        0 -1 74985 2.8538019396364689e-03</internalNodes>
      <leafValues>
        -2.3039105534553528e-01 2.7784702181816101e-01</leafValues></_>
    <_>
      <internalNodes>
        0 -1 126628 -2.7348665753379464e-04</internalNodes>
      <leafValues>
        -7.7914226055145264e-01 8.0140605568885803e-02</leafValues></_>
    <_>
      <internalNodes>
        0 -1 131282 8.1632065121084452e-04</internalNodes>
      <leafValues>
        -3.7345194816589355e-01 1.6007469594478607e-01</leafValues></_>
    <_>
      <internalNodes>
        0 -1 128963 -1.5005792956799269e-03</internalNodes>
      <leafValues>
        2.7624550461769104e-01 -2.4086609482765198e-01</leafValues></_>
    <_>
      <internalNodes>
        0 -1 74673 -2.6763912290334702e-02</internalNodes>
      <leafValues>
        -6.8584138154983521e-01 9.1578140854835510e-02</leafValues></_>
    <_>
      <internalNodes>
        0 -1 117126 -6.4992164261639118e-03</internalNodes>
      <leafValues>
        4.7009807825088501e-01 -1.4597626030445099e-01</leafValues></_>
    <_>
      <internalNodes>
        0 -1 60713 3.6852590739727020e-02</internalNodes>
      <leafValues>
        -1.9471532106399536e-01 3.7080293893814087e-01</leafValues></_>
    <_>
      <internalNodes>
        0 -1 132126 6.9537200033664703e-04</internalNodes>
      <leafValues>
        -2.8973463177680969e-01 2.8526997566223145e-01</leafValues></_>
    <_>
      <internalNodes>
        0 -1 86550 -1.3240745756775141e-03</internalNodes>
      <leafValues>
        -5.7279205322265625e-01 1.1738905310630798e-01</leafValues></_>
    <_>
      <internalNodes>
        0 -1 119598 -1.3658223906531930e-04</internalNodes>
      <leafValues>
        -5.8307391405105591e-01 9.3569077551364899e-02</leafValues></_>
    <_>
      <internalNodes>
        0 -1 21700 2.1514033433049917e-03</internalNodes>
      <leafValues>
        -1.7595690488815308e-01 3.7535265088081360e-01</leafValues></_>
    <_>
      <internalNodes>
        0 -1 86278 1.6483650542795658e-03</internalNodes>
      <leafValues>
        -1.1149793863296509e-01 5.9033668041229248e-01</leafValues></_>
    <_>
      <internalNodes>
        0 -1 141916 3.9711236022412777e-03</internalNodes>
      <leafValues>
        9.1432303190231323e-02 -9.2586535215377808e-01</leafValues></_>
    <_>
      <internalNodes>
        0 -1 150388 2.2953383624553680e-02</internalNodes>
      <leafValues>
        -1.5218727290630341e-01 4.9496877193450928e-01</leafValues></_>
    <_>
      <internalNodes>
        0 -1 156797 -1.1804290115833282e-03</internalNodes>
      <leafValues>
        3.6318033933639526e-01 -2.4185854196548462e-01</leafValues></_>
    <_>
      <internalNodes>
        0 -1 78304 -2.7970850351266563e-04</internalNodes>
      <leafValues>
        2.0071326196193695e-01 -3.1180664896965027e-01</leafValues></_>
    <_>
      <internalNodes>
        0 -1 26795 -6.0596369206905365e-02</internalNodes>
      <leafValues>
        3.2074826955795288e-01 -2.0351997017860413e-01</leafValues></_></weakClassifiers></stage10>
</opencv_storage>
